<?xml version="1.0" encoding="UTF-8" standalone="yes"?>
<PMML xmlns="http://www.dmg.org/PMML-4_3" xmlns:data="http://jpmml.org/jpmml-model/InlineTable" version="4.3">
	<Header>
		<Application name="JPMML-SkLearn" version="1.5.11"/>
		<Timestamp>2019-02-17T12:45:26Z</Timestamp>
	</Header>
	<MiningBuildTask>
		<Extension>PMMLPipeline(steps=[('classifier', RandomForestClassifier(bootstrap=True, class_weight=None, criterion='gini',
            max_depth=None, max_features='auto', max_leaf_nodes=None,
            min_impurity_decrease=0.0, min_impurity_split=None,
            min_samples_leaf=1, min_samples_split=2,
            min_weight_fraction_leaf=0.0, n_estimators=100, n_jobs=4,
            oob_score=False, random_state=2018, verbose=False,
            warm_start=False))])</Extension>
	</MiningBuildTask>
	<DataDictionary>
		<DataField name="y" optype="categorical" dataType="integer">
			<Value value="0"/>
			<Value value="1"/>
		</DataField>
		<DataField name="Time" optype="continuous" dataType="float"/>
		<DataField name="V1" optype="continuous" dataType="float"/>
		<DataField name="V2" optype="continuous" dataType="float"/>
		<DataField name="V3" optype="continuous" dataType="float"/>
		<DataField name="V4" optype="continuous" dataType="float"/>
		<DataField name="V5" optype="continuous" dataType="float"/>
		<DataField name="V6" optype="continuous" dataType="float"/>
		<DataField name="V7" optype="continuous" dataType="float"/>
		<DataField name="V8" optype="continuous" dataType="float"/>
		<DataField name="V9" optype="continuous" dataType="float"/>
		<DataField name="V10" optype="continuous" dataType="float"/>
		<DataField name="V11" optype="continuous" dataType="float"/>
		<DataField name="V12" optype="continuous" dataType="float"/>
		<DataField name="V13" optype="continuous" dataType="float"/>
		<DataField name="V14" optype="continuous" dataType="float"/>
		<DataField name="V15" optype="continuous" dataType="float"/>
		<DataField name="V16" optype="continuous" dataType="float"/>
		<DataField name="V17" optype="continuous" dataType="float"/>
		<DataField name="V18" optype="continuous" dataType="float"/>
		<DataField name="V19" optype="continuous" dataType="float"/>
		<DataField name="V20" optype="continuous" dataType="float"/>
		<DataField name="V21" optype="continuous" dataType="float"/>
		<DataField name="V22" optype="continuous" dataType="float"/>
		<DataField name="V23" optype="continuous" dataType="float"/>
		<DataField name="V24" optype="continuous" dataType="float"/>
		<DataField name="V25" optype="continuous" dataType="float"/>
		<DataField name="V26" optype="continuous" dataType="float"/>
		<DataField name="V27" optype="continuous" dataType="float"/>
		<DataField name="V28" optype="continuous" dataType="float"/>
		<DataField name="Amount" optype="continuous" dataType="float"/>
	</DataDictionary>
	<TransformationDictionary>
		<DerivedField name="double(V10)" optype="continuous" dataType="double">
			<FieldRef field="V10"/>
		</DerivedField>
		<DerivedField name="double(V12)" optype="continuous" dataType="double">
			<FieldRef field="V12"/>
		</DerivedField>
		<DerivedField name="double(V14)" optype="continuous" dataType="double">
			<FieldRef field="V14"/>
		</DerivedField>
		<DerivedField name="double(V5)" optype="continuous" dataType="double">
			<FieldRef field="V5"/>
		</DerivedField>
		<DerivedField name="double(V26)" optype="continuous" dataType="double">
			<FieldRef field="V26"/>
		</DerivedField>
		<DerivedField name="double(V23)" optype="continuous" dataType="double">
			<FieldRef field="V23"/>
		</DerivedField>
		<DerivedField name="double(V28)" optype="continuous" dataType="double">
			<FieldRef field="V28"/>
		</DerivedField>
		<DerivedField name="double(V13)" optype="continuous" dataType="double">
			<FieldRef field="V13"/>
		</DerivedField>
		<DerivedField name="double(V22)" optype="continuous" dataType="double">
			<FieldRef field="V22"/>
		</DerivedField>
		<DerivedField name="double(V27)" optype="continuous" dataType="double">
			<FieldRef field="V27"/>
		</DerivedField>
		<DerivedField name="double(V9)" optype="continuous" dataType="double">
			<FieldRef field="V9"/>
		</DerivedField>
		<DerivedField name="double(V18)" optype="continuous" dataType="double">
			<FieldRef field="V18"/>
		</DerivedField>
		<DerivedField name="double(V17)" optype="continuous" dataType="double">
			<FieldRef field="V17"/>
		</DerivedField>
		<DerivedField name="double(V11)" optype="continuous" dataType="double">
			<FieldRef field="V11"/>
		</DerivedField>
		<DerivedField name="double(V6)" optype="continuous" dataType="double">
			<FieldRef field="V6"/>
		</DerivedField>
		<DerivedField name="double(V15)" optype="continuous" dataType="double">
			<FieldRef field="V15"/>
		</DerivedField>
		<DerivedField name="double(V2)" optype="continuous" dataType="double">
			<FieldRef field="V2"/>
		</DerivedField>
		<DerivedField name="double(V25)" optype="continuous" dataType="double">
			<FieldRef field="V25"/>
		</DerivedField>
		<DerivedField name="double(V21)" optype="continuous" dataType="double">
			<FieldRef field="V21"/>
		</DerivedField>
		<DerivedField name="double(V20)" optype="continuous" dataType="double">
			<FieldRef field="V20"/>
		</DerivedField>
		<DerivedField name="double(Time)" optype="continuous" dataType="double">
			<FieldRef field="Time"/>
		</DerivedField>
		<DerivedField name="double(Amount)" optype="continuous" dataType="double">
			<FieldRef field="Amount"/>
		</DerivedField>
		<DerivedField name="double(V24)" optype="continuous" dataType="double">
			<FieldRef field="V24"/>
		</DerivedField>
		<DerivedField name="double(V4)" optype="continuous" dataType="double">
			<FieldRef field="V4"/>
		</DerivedField>
		<DerivedField name="double(V7)" optype="continuous" dataType="double">
			<FieldRef field="V7"/>
		</DerivedField>
		<DerivedField name="double(V1)" optype="continuous" dataType="double">
			<FieldRef field="V1"/>
		</DerivedField>
		<DerivedField name="double(V3)" optype="continuous" dataType="double">
			<FieldRef field="V3"/>
		</DerivedField>
		<DerivedField name="double(V19)" optype="continuous" dataType="double">
			<FieldRef field="V19"/>
		</DerivedField>
		<DerivedField name="double(V16)" optype="continuous" dataType="double">
			<FieldRef field="V16"/>
		</DerivedField>
		<DerivedField name="double(V8)" optype="continuous" dataType="double">
			<FieldRef field="V8"/>
		</DerivedField>
	</TransformationDictionary>
	<MiningModel functionName="classification">
		<MiningSchema>
			<MiningField name="y" usageType="target"/>
			<MiningField name="V26"/>
			<MiningField name="V1"/>
			<MiningField name="V27"/>
			<MiningField name="Amount"/>
			<MiningField name="V15"/>
			<MiningField name="V24"/>
			<MiningField name="V5"/>
			<MiningField name="V28"/>
			<MiningField name="V11"/>
			<MiningField name="V25"/>
			<MiningField name="V17"/>
			<MiningField name="V23"/>
			<MiningField name="V12"/>
			<MiningField name="V22"/>
			<MiningField name="V6"/>
			<MiningField name="V9"/>
			<MiningField name="V2"/>
			<MiningField name="V4"/>
			<MiningField name="V21"/>
			<MiningField name="V10"/>
			<MiningField name="V14"/>
			<MiningField name="V18"/>
			<MiningField name="V3"/>
			<MiningField name="V16"/>
			<MiningField name="Time"/>
			<MiningField name="V19"/>
			<MiningField name="V13"/>
			<MiningField name="V8"/>
			<MiningField name="V20"/>
			<MiningField name="V7"/>
		</MiningSchema>
		<Output>
			<OutputField name="probability(0)" optype="continuous" dataType="double" feature="probability" value="0"/>
			<OutputField name="probability(1)" optype="continuous" dataType="double" feature="probability" value="1"/>
		</Output>
		<Segmentation multipleModelMethod="average">
			<Segment id="1">
				<True/>
				<TreeModel functionName="classification" missingValueStrategy="nullPrediction" splitCharacteristic="multiSplit">
					<MiningSchema>
						<MiningField name="V10"/>
						<MiningField name="V12"/>
						<MiningField name="V14"/>
						<MiningField name="V5"/>
						<MiningField name="V26"/>
						<MiningField name="V23"/>
						<MiningField name="V28"/>
						<MiningField name="V13"/>
						<MiningField name="V22"/>
						<MiningField name="V27"/>
						<MiningField name="V9"/>
						<MiningField name="V18"/>
						<MiningField name="V17"/>
						<MiningField name="V11"/>
						<MiningField name="V6"/>
						<MiningField name="V15"/>
						<MiningField name="V2"/>
						<MiningField name="V25"/>
						<MiningField name="V21"/>
						<MiningField name="V20"/>
						<MiningField name="Time"/>
						<MiningField name="Amount"/>
						<MiningField name="V24"/>
						<MiningField name="V4"/>
						<MiningField name="V7"/>
						<MiningField name="V1"/>
						<MiningField name="V3"/>
						<MiningField name="V19"/>
						<MiningField name="V16"/>
					</MiningSchema>
					<Node>
						<True/>
						<Node>
							<SimplePredicate field="double(V10)" operator="lessOrEqual" value="-3.7390294075012207"/>
							<Node>
								<SimplePredicate field="double(V12)" operator="lessOrEqual" value="-2.165621757507324"/>
								<Node>
									<SimplePredicate field="double(V14)" operator="lessOrEqual" value="-2.826388120651245"/>
									<Node score="0" recordCount="5.0">
										<SimplePredicate field="double(V5)" operator="lessOrEqual" value="-22.175277709960938"/>
										<ScoreDistribution value="0" recordCount="5.0"/>
										<ScoreDistribution value="1" recordCount="0.0"/>
									</Node>
									<Node>
										<SimplePredicate field="double(V26)" operator="lessOrEqual" value="-0.2642746865749359"/>
										<Node>
											<SimplePredicate field="double(V14)" operator="lessOrEqual" value="-8.643683433532715"/>
											<Node>
												<SimplePredicate field="double(V23)" operator="lessOrEqual" value="0.22821766138076782"/>
												<Node score="1" recordCount="3.0">
													<SimplePredicate field="double(V28)" operator="lessOrEqual" value="-0.08449855446815491"/>
													<ScoreDistribution value="0" recordCount="0.0"/>
													<ScoreDistribution value="1" recordCount="3.0"/>
												</Node>
												<Node score="0" recordCount="16.0">
													<True/>
													<ScoreDistribution value="0" recordCount="16.0"/>
													<ScoreDistribution value="1" recordCount="0.0"/>
												</Node>
											</Node>
											<Node score="1" recordCount="4.0">
												<True/>
												<ScoreDistribution value="0" recordCount="0.0"/>
												<ScoreDistribution value="1" recordCount="4.0"/>
											</Node>
										</Node>
										<Node>
											<SimplePredicate field="double(V13)" operator="lessOrEqual" value="1.601892352104187"/>
											<Node score="0" recordCount="2.0">
												<SimplePredicate field="double(V22)" operator="lessOrEqual" value="-0.6260645389556885"/>
												<ScoreDistribution value="0" recordCount="2.0"/>
												<ScoreDistribution value="1" recordCount="0.0"/>
											</Node>
											<Node score="1" recordCount="22.0">
												<True/>
												<ScoreDistribution value="0" recordCount="0.0"/>
												<ScoreDistribution value="1" recordCount="22.0"/>
											</Node>
										</Node>
										<Node score="0" recordCount="4.0">
											<SimplePredicate field="double(V27)" operator="lessOrEqual" value="0.08442319929599762"/>
											<ScoreDistribution value="0" recordCount="4.0"/>
											<ScoreDistribution value="1" recordCount="0.0"/>
										</Node>
										<Node score="1" recordCount="2.0">
											<True/>
											<ScoreDistribution value="0" recordCount="0.0"/>
											<ScoreDistribution value="1" recordCount="2.0"/>
										</Node>
									</Node>
									<Node>
										<SimplePredicate field="double(V28)" operator="lessOrEqual" value="1.0408728122711182"/>
										<Node>
											<SimplePredicate field="double(V26)" operator="lessOrEqual" value="0.8450086116790771"/>
											<Node>
												<SimplePredicate field="double(V14)" operator="lessOrEqual" value="-13.770697593688965"/>
												<Node score="1" recordCount="14.0">
													<SimplePredicate field="double(V9)" operator="lessOrEqual" value="-3.349907875061035"/>
													<ScoreDistribution value="0" recordCount="0.0"/>
													<ScoreDistribution value="1" recordCount="14.0"/>
												</Node>
												<Node score="1" recordCount="1.0">
													<SimplePredicate field="double(V18)" operator="lessOrEqual" value="-6.143711090087891"/>
													<ScoreDistribution value="0" recordCount="0.0"/>
													<ScoreDistribution value="1" recordCount="1.0"/>
												</Node>
												<Node score="0" recordCount="1.0">
													<True/>
													<ScoreDistribution value="0" recordCount="1.0"/>
													<ScoreDistribution value="1" recordCount="0.0"/>
												</Node>
											</Node>
											<Node score="1" recordCount="134.0">
												<True/>
												<ScoreDistribution value="0" recordCount="0.0"/>
												<ScoreDistribution value="1" recordCount="134.0"/>
											</Node>
										</Node>
										<Node score="1" recordCount="4.0">
											<SimplePredicate field="double(V17)" operator="lessOrEqual" value="-4.190304279327393"/>
											<ScoreDistribution value="0" recordCount="0.0"/>
											<ScoreDistribution value="1" recordCount="4.0"/>
										</Node>
										<Node score="0" recordCount="2.0">
											<True/>
											<ScoreDistribution value="0" recordCount="2.0"/>
											<ScoreDistribution value="1" recordCount="0.0"/>
										</Node>
									</Node>
									<Node score="1" recordCount="3.0">
										<SimplePredicate field="double(V22)" operator="lessOrEqual" value="0.4670906960964203"/>
										<ScoreDistribution value="0" recordCount="0.0"/>
										<ScoreDistribution value="1" recordCount="3.0"/>
									</Node>
									<Node score="0" recordCount="2.0">
										<True/>
										<ScoreDistribution value="0" recordCount="2.0"/>
										<ScoreDistribution value="1" recordCount="0.0"/>
									</Node>
								</Node>
								<Node score="0" recordCount="9.0">
									<SimplePredicate field="double(V11)" operator="lessOrEqual" value="3.2779884338378906"/>
									<ScoreDistribution value="0" recordCount="9.0"/>
									<ScoreDistribution value="1" recordCount="0.0"/>
								</Node>
								<Node score="1" recordCount="1.0">
									<True/>
									<ScoreDistribution value="0" recordCount="0.0"/>
									<ScoreDistribution value="1" recordCount="1.0"/>
								</Node>
							</Node>
							<Node score="0" recordCount="83.0">
								<True/>
								<ScoreDistribution value="0" recordCount="83.0"/>
								<ScoreDistribution value="1" recordCount="0.0"/>
							</Node>
						</Node>
						<Node>
							<SimplePredicate field="double(V26)" operator="lessOrEqual" value="2.740727663040161"/>
							<Node>
								<SimplePredicate field="double(V14)" operator="lessOrEqual" value="-4.661453723907471"/>
								<Node>
									<SimplePredicate field="double(V10)" operator="lessOrEqual" value="-1.847304344177246"/>
									<Node>
										<SimplePredicate field="double(V17)" operator="lessOrEqual" value="4.524486064910889"/>
										<Node score="1" recordCount="43.0">
											<SimplePredicate field="double(V6)" operator="lessOrEqual" value="2.5443811416625977"/>
											<ScoreDistribution value="0" recordCount="0.0"/>
											<ScoreDistribution value="1" recordCount="43.0"/>
										</Node>
										<Node score="0" recordCount="1.0">
											<True/>
											<ScoreDistribution value="0" recordCount="1.0"/>
											<ScoreDistribution value="1" recordCount="0.0"/>
										</Node>
									</Node>
									<Node>
										<SimplePredicate field="double(V15)" operator="lessOrEqual" value="-0.3205660581588745"/>
										<Node score="1" recordCount="1.0">
											<SimplePredicate field="double(V2)" operator="lessOrEqual" value="2.112990140914917"/>
											<ScoreDistribution value="0" recordCount="0.0"/>
											<ScoreDistribution value="1" recordCount="1.0"/>
										</Node>
										<Node score="0" recordCount="15.0">
											<True/>
											<ScoreDistribution value="0" recordCount="15.0"/>
											<ScoreDistribution value="1" recordCount="0.0"/>
										</Node>
									</Node>
									<Node score="1" recordCount="8.0">
										<True/>
										<ScoreDistribution value="0" recordCount="0.0"/>
										<ScoreDistribution value="1" recordCount="8.0"/>
									</Node>
								</Node>
								<Node>
									<SimplePredicate field="double(V11)" operator="lessOrEqual" value="0.2986793518066406"/>
									<Node score="0" recordCount="1.0">
										<SimplePredicate field="double(V25)" operator="lessOrEqual" value="-0.6850188970565796"/>
										<ScoreDistribution value="0" recordCount="1.0"/>
										<ScoreDistribution value="1" recordCount="0.0"/>
									</Node>
									<Node score="1" recordCount="3.0">
										<True/>
										<ScoreDistribution value="0" recordCount="0.0"/>
										<ScoreDistribution value="1" recordCount="3.0"/>
									</Node>
								</Node>
								<Node>
									<SimplePredicate field="double(V21)" operator="lessOrEqual" value="0.8328487873077393"/>
									<Node>
										<SimplePredicate field="double(V20)" operator="lessOrEqual" value="-0.27344435453414917"/>
										<Node score="0" recordCount="12.0">
											<SimplePredicate field="double(Time)" operator="lessOrEqual" value="134871.5"/>
											<ScoreDistribution value="0" recordCount="12.0"/>
											<ScoreDistribution value="1" recordCount="0.0"/>
										</Node>
										<Node score="1" recordCount="1.0">
											<True/>
											<ScoreDistribution value="0" recordCount="0.0"/>
											<ScoreDistribution value="1" recordCount="1.0"/>
										</Node>
									</Node>
									<Node score="0" recordCount="128.0">
										<True/>
										<ScoreDistribution value="0" recordCount="128.0"/>
										<ScoreDistribution value="1" recordCount="0.0"/>
									</Node>
								</Node>
								<Node score="1" recordCount="5.0">
									<SimplePredicate field="double(V10)" operator="lessOrEqual" value="1.5811412334442139"/>
									<ScoreDistribution value="0" recordCount="0.0"/>
									<ScoreDistribution value="1" recordCount="5.0"/>
								</Node>
								<Node score="0" recordCount="2.0">
									<True/>
									<ScoreDistribution value="0" recordCount="2.0"/>
									<ScoreDistribution value="1" recordCount="0.0"/>
								</Node>
							</Node>
							<Node>
								<SimplePredicate field="double(V17)" operator="lessOrEqual" value="-3.867166042327881"/>
								<Node score="0" recordCount="6.0">
									<SimplePredicate field="double(V6)" operator="lessOrEqual" value="-1.7072062492370605"/>
									<ScoreDistribution value="0" recordCount="6.0"/>
									<ScoreDistribution value="1" recordCount="0.0"/>
								</Node>
								<Node>
									<SimplePredicate field="double(V27)" operator="lessOrEqual" value="0.7020649313926697"/>
									<Node>
										<SimplePredicate field="double(V12)" operator="lessOrEqual" value="-2.5436148643493652"/>
										<Node>
											<SimplePredicate field="double(V28)" operator="lessOrEqual" value="0.45754021406173706"/>
											<Node>
												<SimplePredicate field="double(Amount)" operator="lessOrEqual" value="9.994999885559082"/>
												<Node score="1" recordCount="3.0">
													<SimplePredicate field="double(Time)" operator="lessOrEqual" value="66668.0"/>
													<ScoreDistribution value="0" recordCount="0.0"/>
													<ScoreDistribution value="1" recordCount="3.0"/>
												</Node>
												<Node score="0" recordCount="1.0">
													<True/>
													<ScoreDistribution value="0" recordCount="1.0"/>
													<ScoreDistribution value="1" recordCount="0.0"/>
												</Node>
											</Node>
											<Node score="1" recordCount="18.0">
												<True/>
												<ScoreDistribution value="0" recordCount="0.0"/>
												<ScoreDistribution value="1" recordCount="18.0"/>
											</Node>
										</Node>
										<Node score="0" recordCount="1.0">
											<True/>
											<ScoreDistribution value="0" recordCount="1.0"/>
											<ScoreDistribution value="1" recordCount="0.0"/>
										</Node>
									</Node>
									<Node score="1" recordCount="1.0">
										<SimplePredicate field="double(V24)" operator="lessOrEqual" value="0.2677208483219147"/>
										<ScoreDistribution value="0" recordCount="0.0"/>
										<ScoreDistribution value="1" recordCount="1.0"/>
									</Node>
									<Node score="0" recordCount="3.0">
										<True/>
										<ScoreDistribution value="0" recordCount="3.0"/>
										<ScoreDistribution value="1" recordCount="0.0"/>
									</Node>
								</Node>
								<Node score="0" recordCount="6.0">
									<True/>
									<ScoreDistribution value="0" recordCount="6.0"/>
									<ScoreDistribution value="1" recordCount="0.0"/>
								</Node>
							</Node>
							<Node>
								<SimplePredicate field="double(V10)" operator="lessOrEqual" value="-3.7156615257263184"/>
								<Node score="0" recordCount="3.0">
									<SimplePredicate field="double(V18)" operator="lessOrEqual" value="0.3144758939743042"/>
									<ScoreDistribution value="0" recordCount="3.0"/>
									<ScoreDistribution value="1" recordCount="0.0"/>
								</Node>
								<Node score="1" recordCount="1.0">
									<True/>
									<ScoreDistribution value="0" recordCount="0.0"/>
									<ScoreDistribution value="1" recordCount="1.0"/>
								</Node>
							</Node>
							<Node>
								<SimplePredicate field="double(V25)" operator="lessOrEqual" value="-3.4874026775360107"/>
								<Node score="0" recordCount="25.0">
									<SimplePredicate field="double(V25)" operator="lessOrEqual" value="-3.553760051727295"/>
									<ScoreDistribution value="0" recordCount="25.0"/>
									<ScoreDistribution value="1" recordCount="0.0"/>
								</Node>
								<Node score="1" recordCount="2.0">
									<True/>
									<ScoreDistribution value="0" recordCount="0.0"/>
									<ScoreDistribution value="1" recordCount="2.0"/>
								</Node>
							</Node>
							<Node>
								<SimplePredicate field="double(V21)" operator="lessOrEqual" value="9.992542266845703"/>
								<Node>
									<SimplePredicate field="double(V10)" operator="lessOrEqual" value="-3.4357736110687256"/>
									<Node score="1" recordCount="1.0">
										<SimplePredicate field="double(V14)" operator="lessOrEqual" value="-2.7903952598571777"/>
										<ScoreDistribution value="0" recordCount="0.0"/>
										<ScoreDistribution value="1" recordCount="1.0"/>
									</Node>
									<Node score="0" recordCount="33.0">
										<True/>
										<ScoreDistribution value="0" recordCount="33.0"/>
										<ScoreDistribution value="1" recordCount="0.0"/>
									</Node>
								</Node>
								<Node>
									<SimplePredicate field="double(V4)" operator="lessOrEqual" value="1.6614139080047607"/>
									<Node>
										<SimplePredicate field="double(V7)" operator="lessOrEqual" value="-1.082498550415039"/>
										<Node>
											<SimplePredicate field="double(V1)" operator="lessOrEqual" value="2.0918498039245605"/>
											<Node score="0" recordCount="12541.0">
												<SimplePredicate field="double(V20)" operator="lessOrEqual" value="0.8639137744903564"/>
												<ScoreDistribution value="0" recordCount="12541.0"/>
												<ScoreDistribution value="1" recordCount="0.0"/>
											</Node>
											<Node>
												<SimplePredicate field="double(V12)" operator="lessOrEqual" value="-0.8450455069541931"/>
												<Node>
													<SimplePredicate field="double(V3)" operator="lessOrEqual" value="-0.4960283637046814"/>
													<Node score="1" recordCount="2.0">
														<SimplePredicate field="double(V24)" operator="lessOrEqual" value="-0.9331766963005066"/>
														<ScoreDistribution value="0" recordCount="0.0"/>
														<ScoreDistribution value="1" recordCount="2.0"/>
													</Node>
													<Node score="0" recordCount="20.0">
														<True/>
														<ScoreDistribution value="0" recordCount="20.0"/>
														<ScoreDistribution value="1" recordCount="0.0"/>
													</Node>
												</Node>
												<Node score="0" recordCount="78.0">
													<True/>
													<ScoreDistribution value="0" recordCount="78.0"/>
													<ScoreDistribution value="1" recordCount="0.0"/>
												</Node>
											</Node>
											<Node score="0" recordCount="1343.0">
												<True/>
												<ScoreDistribution value="0" recordCount="1343.0"/>
												<ScoreDistribution value="1" recordCount="0.0"/>
											</Node>
										</Node>
										<Node>
											<SimplePredicate field="double(V10)" operator="lessOrEqual" value="0.2526341676712036"/>
											<Node score="1" recordCount="3.0">
												<SimplePredicate field="double(V13)" operator="lessOrEqual" value="-0.19820916652679443"/>
												<ScoreDistribution value="0" recordCount="0.0"/>
												<ScoreDistribution value="1" recordCount="3.0"/>
											</Node>
											<Node score="0" recordCount="21.0">
												<True/>
												<ScoreDistribution value="0" recordCount="21.0"/>
												<ScoreDistribution value="1" recordCount="0.0"/>
											</Node>
										</Node>
										<Node score="0" recordCount="2130.0">
											<True/>
											<ScoreDistribution value="0" recordCount="2130.0"/>
											<ScoreDistribution value="1" recordCount="0.0"/>
										</Node>
									</Node>
									<Node>
										<SimplePredicate field="double(V14)" operator="lessOrEqual" value="-0.43168967962265015"/>
										<Node>
											<SimplePredicate field="double(V14)" operator="lessOrEqual" value="-0.43169456720352173"/>
											<Node>
												<SimplePredicate field="double(V1)" operator="lessOrEqual" value="1.1766937971115112"/>
												<Node>
													<SimplePredicate field="double(V21)" operator="lessOrEqual" value="0.861971378326416"/>
													<Node score="0" recordCount="22640.0">
														<SimplePredicate field="double(V12)" operator="lessOrEqual" value="0.9221011400222778"/>
														<ScoreDistribution value="0" recordCount="22640.0"/>
														<ScoreDistribution value="1" recordCount="0.0"/>
													</Node>
													<Node>
														<SimplePredicate field="double(V10)" operator="lessOrEqual" value="-1.480165958404541"/>
														<Node score="1" recordCount="1.0">
															<SimplePredicate field="double(V12)" operator="lessOrEqual" value="0.9283344745635986"/>
															<ScoreDistribution value="0" recordCount="0.0"/>
															<ScoreDistribution value="1" recordCount="1.0"/>
														</Node>
														<Node score="0" recordCount="248.0">
															<True/>
															<ScoreDistribution value="0" recordCount="248.0"/>
															<ScoreDistribution value="1" recordCount="0.0"/>
														</Node>
													</Node>
													<Node score="0" recordCount="1770.0">
														<True/>
														<ScoreDistribution value="0" recordCount="1770.0"/>
														<ScoreDistribution value="1" recordCount="0.0"/>
													</Node>
												</Node>
												<Node score="1" recordCount="1.0">
													<SimplePredicate field="double(V21)" operator="lessOrEqual" value="0.8629321455955505"/>
													<ScoreDistribution value="0" recordCount="0.0"/>
													<ScoreDistribution value="1" recordCount="1.0"/>
												</Node>
												<Node score="0" recordCount="647.0">
													<True/>
													<ScoreDistribution value="0" recordCount="647.0"/>
													<ScoreDistribution value="1" recordCount="0.0"/>
												</Node>
											</Node>
											<Node>
												<SimplePredicate field="double(V19)" operator="lessOrEqual" value="1.189453363418579"/>
												<Node>
													<SimplePredicate field="double(V11)" operator="lessOrEqual" value="2.2739546298980713"/>
													<Node>
														<SimplePredicate field="double(V22)" operator="lessOrEqual" value="-0.5113043785095215"/>
														<Node>
															<SimplePredicate field="double(V22)" operator="lessOrEqual" value="-0.5115914940834045"/>
															<Node score="0" recordCount="3447.0">
																<SimplePredicate field="double(V22)" operator="lessOrEqual" value="-0.5177292823791504"/>
																<ScoreDistribution value="0" recordCount="3447.0"/>
																<ScoreDistribution value="1" recordCount="0.0"/>
															</Node>
															<Node score="1" recordCount="1.0">
																<SimplePredicate field="double(V21)" operator="lessOrEqual" value="-0.3501383066177368"/>
																<ScoreDistribution value="0" recordCount="0.0"/>
																<ScoreDistribution value="1" recordCount="1.0"/>
															</Node>
															<Node score="0" recordCount="16.0">
																<True/>
																<ScoreDistribution value="0" recordCount="16.0"/>
																<ScoreDistribution value="1" recordCount="0.0"/>
															</Node>
														</Node>
														<Node score="1" recordCount="2.0">
															<True/>
															<ScoreDistribution value="0" recordCount="0.0"/>
															<ScoreDistribution value="1" recordCount="2.0"/>
														</Node>
													</Node>
													<Node score="0" recordCount="6463.0">
														<True/>
														<ScoreDistribution value="0" recordCount="6463.0"/>
														<ScoreDistribution value="1" recordCount="0.0"/>
													</Node>
												</Node>
												<Node>
													<SimplePredicate field="double(V5)" operator="lessOrEqual" value="0.25395065546035767"/>
													<Node score="1" recordCount="1.0">
														<SimplePredicate field="double(V16)" operator="lessOrEqual" value="0.5147383809089661"/>
														<ScoreDistribution value="0" recordCount="0.0"/>
														<ScoreDistribution value="1" recordCount="1.0"/>
													</Node>
													<Node score="0" recordCount="3.0">
														<True/>
														<ScoreDistribution value="0" recordCount="3.0"/>
														<ScoreDistribution value="1" recordCount="0.0"/>
													</Node>
												</Node>
												<Node score="0" recordCount="50.0">
													<True/>
													<ScoreDistribution value="0" recordCount="50.0"/>
													<ScoreDistribution value="1" recordCount="0.0"/>
												</Node>
											</Node>
											<Node score="1" recordCount="1.0">
												<SimplePredicate field="double(V19)" operator="lessOrEqual" value="1.1904736757278442"/>
												<ScoreDistribution value="0" recordCount="0.0"/>
												<ScoreDistribution value="1" recordCount="1.0"/>
											</Node>
											<Node score="0" recordCount="67.0">
												<True/>
												<ScoreDistribution value="0" recordCount="67.0"/>
												<ScoreDistribution value="1" recordCount="0.0"/>
											</Node>
										</Node>
										<Node score="1" recordCount="1.0">
											<True/>
											<ScoreDistribution value="0" recordCount="0.0"/>
											<ScoreDistribution value="1" recordCount="1.0"/>
										</Node>
									</Node>
									<Node>
										<SimplePredicate field="double(Amount)" operator="lessOrEqual" value="1096.655029296875"/>
										<Node score="0" recordCount="110879.0">
											<SimplePredicate field="double(V4)" operator="lessOrEqual" value="1.4010438919067383"/>
											<ScoreDistribution value="0" recordCount="110879.0"/>
											<ScoreDistribution value="1" recordCount="0.0"/>
										</Node>
										<Node score="0" recordCount="3134.0">
											<SimplePredicate field="double(V19)" operator="lessOrEqual" value="1.163252592086792"/>
											<ScoreDistribution value="0" recordCount="3134.0"/>
											<ScoreDistribution value="1" recordCount="0.0"/>
										</Node>
										<Node score="0" recordCount="356.0">
											<SimplePredicate field="double(V15)" operator="lessOrEqual" value="2.198336124420166"/>
											<ScoreDistribution value="0" recordCount="356.0"/>
											<ScoreDistribution value="1" recordCount="0.0"/>
										</Node>
										<Node score="1" recordCount="2.0">
											<SimplePredicate field="double(V19)" operator="lessOrEqual" value="1.2594119310379028"/>
											<ScoreDistribution value="0" recordCount="0.0"/>
											<ScoreDistribution value="1" recordCount="2.0"/>
										</Node>
										<Node score="0" recordCount="2.0">
											<True/>
											<ScoreDistribution value="0" recordCount="2.0"/>
											<ScoreDistribution value="1" recordCount="0.0"/>
										</Node>
									</Node>
									<Node>
										<SimplePredicate field="double(V6)" operator="lessOrEqual" value="-0.7992385029792786"/>
										<Node score="1" recordCount="1.0">
											<SimplePredicate field="double(Amount)" operator="lessOrEqual" value="1098.330078125"/>
											<ScoreDistribution value="0" recordCount="0.0"/>
											<ScoreDistribution value="1" recordCount="1.0"/>
										</Node>
										<Node score="0" recordCount="56.0">
											<True/>
											<ScoreDistribution value="0" recordCount="56.0"/>
											<ScoreDistribution value="1" recordCount="0.0"/>
										</Node>
									</Node>
									<Node score="0" recordCount="833.0">
										<True/>
										<ScoreDistribution value="0" recordCount="833.0"/>
										<ScoreDistribution value="1" recordCount="0.0"/>
									</Node>
								</Node>
								<Node>
									<SimplePredicate field="double(V5)" operator="lessOrEqual" value="0.3157387971878052"/>
									<Node score="1" recordCount="1.0">
										<SimplePredicate field="double(V17)" operator="lessOrEqual" value="-2.7965283393859863"/>
										<ScoreDistribution value="0" recordCount="0.0"/>
										<ScoreDistribution value="1" recordCount="1.0"/>
									</Node>
									<Node score="0" recordCount="8358.0">
										<SimplePredicate field="double(V23)" operator="lessOrEqual" value="0.77676922082901"/>
										<ScoreDistribution value="0" recordCount="8358.0"/>
										<ScoreDistribution value="1" recordCount="0.0"/>
									</Node>
									<Node score="1" recordCount="2.0">
										<SimplePredicate field="double(V23)" operator="lessOrEqual" value="0.777802586555481"/>
										<ScoreDistribution value="0" recordCount="0.0"/>
										<ScoreDistribution value="1" recordCount="2.0"/>
									</Node>
									<Node score="0" recordCount="345.0">
										<True/>
										<ScoreDistribution value="0" recordCount="345.0"/>
										<ScoreDistribution value="1" recordCount="0.0"/>
									</Node>
								</Node>
								<Node score="1" recordCount="3.0">
									<SimplePredicate field="double(V5)" operator="lessOrEqual" value="0.31608283519744873"/>
									<ScoreDistribution value="0" recordCount="0.0"/>
									<ScoreDistribution value="1" recordCount="3.0"/>
								</Node>
								<Node>
									<SimplePredicate field="double(V7)" operator="lessOrEqual" value="1.5999031066894531"/>
									<Node>
										<SimplePredicate field="double(V7)" operator="lessOrEqual" value="0.7149486541748047"/>
										<Node>
											<SimplePredicate field="double(Time)" operator="lessOrEqual" value="487.0"/>
											<Node score="0" recordCount="8.0">
												<SimplePredicate field="double(Amount)" operator="lessOrEqual" value="307.0"/>
												<ScoreDistribution value="0" recordCount="8.0"/>
												<ScoreDistribution value="1" recordCount="0.0"/>
											</Node>
											<Node score="1" recordCount="1.0">
												<True/>
												<ScoreDistribution value="0" recordCount="0.0"/>
												<ScoreDistribution value="1" recordCount="1.0"/>
											</Node>
										</Node>
										<Node score="0" recordCount="3990.0">
											<SimplePredicate field="double(V6)" operator="lessOrEqual" value="2.9103822708129883"/>
											<ScoreDistribution value="0" recordCount="3990.0"/>
											<ScoreDistribution value="1" recordCount="0.0"/>
										</Node>
										<Node score="0" recordCount="323.0">
											<SimplePredicate field="double(V17)" operator="lessOrEqual" value="0.7512264251708984"/>
											<ScoreDistribution value="0" recordCount="323.0"/>
											<ScoreDistribution value="1" recordCount="0.0"/>
										</Node>
										<Node score="1" recordCount="1.0">
											<SimplePredicate field="double(V6)" operator="lessOrEqual" value="2.9215891361236572"/>
											<ScoreDistribution value="0" recordCount="0.0"/>
											<ScoreDistribution value="1" recordCount="1.0"/>
										</Node>
										<Node score="0" recordCount="55.0">
											<True/>
											<ScoreDistribution value="0" recordCount="55.0"/>
											<ScoreDistribution value="1" recordCount="0.0"/>
										</Node>
									</Node>
									<Node>
										<SimplePredicate field="double(V20)" operator="lessOrEqual" value="-0.2256583422422409"/>
										<Node score="1" recordCount="4.0">
											<SimplePredicate field="double(V4)" operator="lessOrEqual" value="1.6618939638137817"/>
											<ScoreDistribution value="0" recordCount="0.0"/>
											<ScoreDistribution value="1" recordCount="4.0"/>
										</Node>
										<Node score="0" recordCount="378.0">
											<SimplePredicate field="double(V17)" operator="lessOrEqual" value="1.8620409965515137"/>
											<ScoreDistribution value="0" recordCount="378.0"/>
											<ScoreDistribution value="1" recordCount="0.0"/>
										</Node>
										<Node score="0" recordCount="10.0">
											<SimplePredicate field="double(V20)" operator="lessOrEqual" value="-0.2346612960100174"/>
											<ScoreDistribution value="0" recordCount="10.0"/>
											<ScoreDistribution value="1" recordCount="0.0"/>
										</Node>
										<Node score="1" recordCount="1.0">
											<True/>
											<ScoreDistribution value="0" recordCount="0.0"/>
											<ScoreDistribution value="1" recordCount="1.0"/>
										</Node>
									</Node>
									<Node score="0" recordCount="1040.0">
										<True/>
										<ScoreDistribution value="0" recordCount="1040.0"/>
										<ScoreDistribution value="1" recordCount="0.0"/>
									</Node>
								</Node>
								<Node score="1" recordCount="3.0">
									<SimplePredicate field="double(V7)" operator="lessOrEqual" value="1.6011686325073242"/>
									<ScoreDistribution value="0" recordCount="0.0"/>
									<ScoreDistribution value="1" recordCount="3.0"/>
								</Node>
								<Node>
									<SimplePredicate field="double(Time)" operator="lessOrEqual" value="35606.5"/>
									<Node score="0" recordCount="4.0">
										<SimplePredicate field="double(V12)" operator="lessOrEqual" value="-0.9282801151275635"/>
										<ScoreDistribution value="0" recordCount="4.0"/>
										<ScoreDistribution value="1" recordCount="0.0"/>
									</Node>
									<Node score="1" recordCount="1.0">
										<True/>
										<ScoreDistribution value="0" recordCount="0.0"/>
										<ScoreDistribution value="1" recordCount="1.0"/>
									</Node>
								</Node>
								<Node score="0" recordCount="231.0">
									<True/>
									<ScoreDistribution value="0" recordCount="231.0"/>
									<ScoreDistribution value="1" recordCount="0.0"/>
								</Node>
							</Node>
							<Node>
								<SimplePredicate field="double(V14)" operator="lessOrEqual" value="-1.6316447257995605"/>
								<Node score="1" recordCount="3.0">
									<SimplePredicate field="double(V17)" operator="lessOrEqual" value="3.588289976119995"/>
									<ScoreDistribution value="0" recordCount="0.0"/>
									<ScoreDistribution value="1" recordCount="3.0"/>
								</Node>
								<Node score="0" recordCount="1.0">
									<True/>
									<ScoreDistribution value="0" recordCount="1.0"/>
									<ScoreDistribution value="1" recordCount="0.0"/>
								</Node>
							</Node>
							<Node score="0" recordCount="87.0">
								<True/>
								<ScoreDistribution value="0" recordCount="87.0"/>
								<ScoreDistribution value="1" recordCount="0.0"/>
							</Node>
						</Node>
						<Node>
							<SimplePredicate field="double(V3)" operator="lessOrEqual" value="-0.7274511456489563"/>
							<Node score="0" recordCount="3.0">
								<SimplePredicate field="double(Time)" operator="lessOrEqual" value="124198.5"/>
								<ScoreDistribution value="0" recordCount="3.0"/>
								<ScoreDistribution value="1" recordCount="0.0"/>
							</Node>
							<Node score="1" recordCount="2.0">
								<True/>
								<ScoreDistribution value="0" recordCount="0.0"/>
								<ScoreDistribution value="1" recordCount="2.0"/>
							</Node>
						</Node>
						<Node score="0" recordCount="25.0">
							<True/>
							<ScoreDistribution value="0" recordCount="25.0"/>
							<ScoreDistribution value="1" recordCount="0.0"/>
						</Node>
					</Node>
				</TreeModel>
			</Segment>
			<Segment id="2">
				<True/>
				<TreeModel functionName="classification" missingValueStrategy="nullPrediction" splitCharacteristic="multiSplit">
					<MiningSchema>
						<MiningField name="V10"/>
						<MiningField name="V12"/>
						<MiningField name="V14"/>
						<MiningField name="V5"/>
						<MiningField name="V26"/>
						<MiningField name="V23"/>
						<MiningField name="V28"/>
						<MiningField name="V13"/>
						<MiningField name="V22"/>
						<MiningField name="V27"/>
						<MiningField name="V9"/>
						<MiningField name="V18"/>
						<MiningField name="V17"/>
						<MiningField name="V11"/>
						<MiningField name="V6"/>
						<MiningField name="V15"/>
						<MiningField name="V2"/>
						<MiningField name="V25"/>
						<MiningField name="V21"/>
						<MiningField name="V20"/>
						<MiningField name="Time"/>
						<MiningField name="Amount"/>
						<MiningField name="V24"/>
						<MiningField name="V4"/>
						<MiningField name="V7"/>
						<MiningField name="V1"/>
						<MiningField name="V3"/>
						<MiningField name="V19"/>
						<MiningField name="V16"/>
						<MiningField name="V8"/>
					</MiningSchema>
					<Node>
						<True/>
						<Node>
							<SimplePredicate field="double(V14)" operator="lessOrEqual" value="-4.85720157623291"/>
							<Node>
								<SimplePredicate field="double(V8)" operator="lessOrEqual" value="-0.25634852051734924"/>
								<Node>
									<SimplePredicate field="double(V12)" operator="lessOrEqual" value="-2.231548309326172"/>
									<Node>
										<SimplePredicate field="double(V10)" operator="lessOrEqual" value="4.102459907531738"/>
										<Node score="1" recordCount="38.0">
											<SimplePredicate field="double(V4)" operator="lessOrEqual" value="13.234854698181152"/>
											<ScoreDistribution value="0" recordCount="0.0"/>
											<ScoreDistribution value="1" recordCount="38.0"/>
										</Node>
										<Node score="0" recordCount="1.0">
											<True/>
											<ScoreDistribution value="0" recordCount="1.0"/>
											<ScoreDistribution value="1" recordCount="0.0"/>
										</Node>
									</Node>
									<Node score="0" recordCount="2.0">
										<True/>
										<ScoreDistribution value="0" recordCount="2.0"/>
										<ScoreDistribution value="1" recordCount="0.0"/>
									</Node>
								</Node>
								<Node score="1" recordCount="3.0">
									<SimplePredicate field="double(Amount)" operator="lessOrEqual" value="0.7150000333786011"/>
									<ScoreDistribution value="0" recordCount="0.0"/>
									<ScoreDistribution value="1" recordCount="3.0"/>
								</Node>
								<Node score="0" recordCount="104.0">
									<SimplePredicate field="double(V17)" operator="lessOrEqual" value="5.495874881744385"/>
									<ScoreDistribution value="0" recordCount="104.0"/>
									<ScoreDistribution value="1" recordCount="0.0"/>
								</Node>
								<Node score="1" recordCount="2.0">
									<SimplePredicate field="double(V25)" operator="lessOrEqual" value="-1.3924751281738281"/>
									<ScoreDistribution value="0" recordCount="0.0"/>
									<ScoreDistribution value="1" recordCount="2.0"/>
								</Node>
								<Node score="0" recordCount="7.0">
									<True/>
									<ScoreDistribution value="0" recordCount="7.0"/>
									<ScoreDistribution value="1" recordCount="0.0"/>
								</Node>
							</Node>
							<Node>
								<SimplePredicate field="double(V20)" operator="lessOrEqual" value="0.8068437576293945"/>
								<Node>
									<SimplePredicate field="double(V18)" operator="lessOrEqual" value="2.476248025894165"/>
									<Node>
										<SimplePredicate field="double(V28)" operator="lessOrEqual" value="0.8415437936782837"/>
										<Node>
											<SimplePredicate field="double(V14)" operator="lessOrEqual" value="-9.994617462158203"/>
											<Node>
												<SimplePredicate field="double(Time)" operator="lessOrEqual" value="34780.0"/>
												<Node score="0" recordCount="1.0">
													<SimplePredicate field="double(V13)" operator="lessOrEqual" value="-0.26362842321395874"/>
													<ScoreDistribution value="0" recordCount="1.0"/>
													<ScoreDistribution value="1" recordCount="0.0"/>
												</Node>
												<Node score="1" recordCount="1.0">
													<True/>
													<ScoreDistribution value="0" recordCount="0.0"/>
													<ScoreDistribution value="1" recordCount="1.0"/>
												</Node>
											</Node>
											<Node score="1" recordCount="24.0">
												<True/>
												<ScoreDistribution value="0" recordCount="0.0"/>
												<ScoreDistribution value="1" recordCount="24.0"/>
											</Node>
										</Node>
										<Node score="1" recordCount="93.0">
											<True/>
											<ScoreDistribution value="0" recordCount="0.0"/>
											<ScoreDistribution value="1" recordCount="93.0"/>
										</Node>
									</Node>
									<Node score="1" recordCount="3.0">
										<SimplePredicate field="double(Amount)" operator="lessOrEqual" value="84.44999694824219"/>
										<ScoreDistribution value="0" recordCount="0.0"/>
										<ScoreDistribution value="1" recordCount="3.0"/>
									</Node>
									<Node score="0" recordCount="2.0">
										<True/>
										<ScoreDistribution value="0" recordCount="2.0"/>
										<ScoreDistribution value="1" recordCount="0.0"/>
									</Node>
								</Node>
								<Node score="1" recordCount="1.0">
									<SimplePredicate field="double(V7)" operator="lessOrEqual" value="0.3841925263404846"/>
									<ScoreDistribution value="0" recordCount="0.0"/>
									<ScoreDistribution value="1" recordCount="1.0"/>
								</Node>
								<Node score="0" recordCount="7.0">
									<True/>
									<ScoreDistribution value="0" recordCount="7.0"/>
									<ScoreDistribution value="1" recordCount="0.0"/>
								</Node>
							</Node>
							<Node>
								<SimplePredicate field="double(V22)" operator="lessOrEqual" value="0.21481111645698547"/>
								<Node>
									<SimplePredicate field="double(V26)" operator="lessOrEqual" value="-0.2703514099121094"/>
									<Node score="0" recordCount="32.0">
										<SimplePredicate field="double(V1)" operator="lessOrEqual" value="-2.774479866027832"/>
										<ScoreDistribution value="0" recordCount="32.0"/>
										<ScoreDistribution value="1" recordCount="0.0"/>
									</Node>
									<Node score="1" recordCount="3.0">
										<True/>
										<ScoreDistribution value="0" recordCount="0.0"/>
										<ScoreDistribution value="1" recordCount="3.0"/>
									</Node>
								</Node>
								<Node score="1" recordCount="23.0">
									<SimplePredicate field="double(V27)" operator="lessOrEqual" value="1.8907686471939087"/>
									<ScoreDistribution value="0" recordCount="0.0"/>
									<ScoreDistribution value="1" recordCount="23.0"/>
								</Node>
								<Node score="0" recordCount="2.0">
									<True/>
									<ScoreDistribution value="0" recordCount="2.0"/>
									<ScoreDistribution value="1" recordCount="0.0"/>
								</Node>
							</Node>
							<Node score="1" recordCount="20.0">
								<SimplePredicate field="double(V3)" operator="lessOrEqual" value="-3.5500030517578125"/>
								<ScoreDistribution value="0" recordCount="0.0"/>
								<ScoreDistribution value="1" recordCount="20.0"/>
							</Node>
							<Node score="0" recordCount="2.0">
								<SimplePredicate field="double(V18)" operator="lessOrEqual" value="-2.630612850189209"/>
								<ScoreDistribution value="0" recordCount="2.0"/>
								<ScoreDistribution value="1" recordCount="0.0"/>
							</Node>
							<Node score="1" recordCount="1.0">
								<True/>
								<ScoreDistribution value="0" recordCount="0.0"/>
								<ScoreDistribution value="1" recordCount="1.0"/>
							</Node>
						</Node>
						<Node>
							<SimplePredicate field="double(V14)" operator="lessOrEqual" value="-3.9254653453826904"/>
							<Node>
								<SimplePredicate field="double(V12)" operator="lessOrEqual" value="-2.18782639503479"/>
								<Node>
									<SimplePredicate field="double(V9)" operator="lessOrEqual" value="1.832025408744812"/>
									<Node score="1" recordCount="30.0">
										<SimplePredicate field="double(V18)" operator="lessOrEqual" value="3.8012895584106445"/>
										<ScoreDistribution value="0" recordCount="0.0"/>
										<ScoreDistribution value="1" recordCount="30.0"/>
									</Node>
									<Node score="0" recordCount="7.0">
										<True/>
										<ScoreDistribution value="0" recordCount="7.0"/>
										<ScoreDistribution value="1" recordCount="0.0"/>
									</Node>
								</Node>
								<Node score="0" recordCount="6.0">
									<True/>
									<ScoreDistribution value="0" recordCount="6.0"/>
									<ScoreDistribution value="1" recordCount="0.0"/>
								</Node>
							</Node>
							<Node>
								<SimplePredicate field="double(V22)" operator="lessOrEqual" value="-0.5863668918609619"/>
								<Node>
									<SimplePredicate field="double(V2)" operator="lessOrEqual" value="1.398878812789917"/>
									<Node score="1" recordCount="3.0">
										<SimplePredicate field="double(V6)" operator="lessOrEqual" value="-0.14296090602874756"/>
										<ScoreDistribution value="0" recordCount="0.0"/>
										<ScoreDistribution value="1" recordCount="3.0"/>
									</Node>
									<Node score="0" recordCount="3.0">
										<True/>
										<ScoreDistribution value="0" recordCount="3.0"/>
										<ScoreDistribution value="1" recordCount="0.0"/>
									</Node>
								</Node>
								<Node score="0" recordCount="31.0">
									<True/>
									<ScoreDistribution value="0" recordCount="31.0"/>
									<ScoreDistribution value="1" recordCount="0.0"/>
								</Node>
							</Node>
							<Node score="0" recordCount="133.0">
								<True/>
								<ScoreDistribution value="0" recordCount="133.0"/>
								<ScoreDistribution value="1" recordCount="0.0"/>
							</Node>
						</Node>
						<Node score="1" recordCount="2.0">
							<SimplePredicate field="double(V10)" operator="lessOrEqual" value="-16.521728515625"/>
							<ScoreDistribution value="0" recordCount="0.0"/>
							<ScoreDistribution value="1" recordCount="2.0"/>
						</Node>
						<Node>
							<SimplePredicate field="double(V19)" operator="lessOrEqual" value="1.7015316486358643"/>
							<Node>
								<SimplePredicate field="double(V20)" operator="lessOrEqual" value="-1.0165657997131348"/>
								<Node>
									<SimplePredicate field="double(V1)" operator="lessOrEqual" value="-0.3969721794128418"/>
									<Node>
										<SimplePredicate field="double(V3)" operator="lessOrEqual" value="-5.04547119140625"/>
										<Node>
											<SimplePredicate field="double(V10)" operator="lessOrEqual" value="-2.067039728164673"/>
											<Node>
												<SimplePredicate field="double(V21)" operator="lessOrEqual" value="1.0024086236953735"/>
												<Node score="1" recordCount="1.0">
													<SimplePredicate field="double(V12)" operator="lessOrEqual" value="-3.002678394317627"/>
													<ScoreDistribution value="0" recordCount="0.0"/>
													<ScoreDistribution value="1" recordCount="1.0"/>
												</Node>
												<Node score="0" recordCount="25.0">
													<True/>
													<ScoreDistribution value="0" recordCount="25.0"/>
													<ScoreDistribution value="1" recordCount="0.0"/>
												</Node>
											</Node>
											<Node score="1" recordCount="2.0">
												<True/>
												<ScoreDistribution value="0" recordCount="0.0"/>
												<ScoreDistribution value="1" recordCount="2.0"/>
											</Node>
										</Node>
										<Node score="0" recordCount="116.0">
											<True/>
											<ScoreDistribution value="0" recordCount="116.0"/>
											<ScoreDistribution value="1" recordCount="0.0"/>
										</Node>
									</Node>
									<Node>
										<SimplePredicate field="double(V28)" operator="lessOrEqual" value="-1.4899752140045166"/>
										<Node>
											<SimplePredicate field="double(V17)" operator="lessOrEqual" value="-1.9711427688598633"/>
											<Node score="0" recordCount="2.0">
												<SimplePredicate field="double(V21)" operator="lessOrEqual" value="-1.5877591371536255"/>
												<ScoreDistribution value="0" recordCount="2.0"/>
												<ScoreDistribution value="1" recordCount="0.0"/>
											</Node>
											<Node score="1" recordCount="2.0">
												<True/>
												<ScoreDistribution value="0" recordCount="0.0"/>
												<ScoreDistribution value="1" recordCount="2.0"/>
											</Node>
										</Node>
										<Node score="0" recordCount="166.0">
											<True/>
											<ScoreDistribution value="0" recordCount="166.0"/>
											<ScoreDistribution value="1" recordCount="0.0"/>
										</Node>
									</Node>
									<Node>
										<SimplePredicate field="double(V16)" operator="lessOrEqual" value="-0.6352726817131042"/>
										<Node>
											<SimplePredicate field="double(Time)" operator="lessOrEqual" value="68815.0"/>
											<Node>
												<SimplePredicate field="double(V12)" operator="lessOrEqual" value="-0.2204190045595169"/>
												<Node>
													<SimplePredicate field="double(V20)" operator="lessOrEqual" value="-1.0242711305618286"/>
													<Node>
														<SimplePredicate field="double(Time)" operator="lessOrEqual" value="65694.5"/>
														<Node score="0" recordCount="41.0">
															<SimplePredicate field="double(V23)" operator="lessOrEqual" value="0.7526422739028931"/>
															<ScoreDistribution value="0" recordCount="41.0"/>
															<ScoreDistribution value="1" recordCount="0.0"/>
														</Node>
														<Node score="0" recordCount="9.0">
															<SimplePredicate field="double(V16)" operator="lessOrEqual" value="-0.6691453456878662"/>
															<ScoreDistribution value="0" recordCount="9.0"/>
															<ScoreDistribution value="1" recordCount="0.0"/>
														</Node>
														<Node score="1" recordCount="1.0">
															<True/>
															<ScoreDistribution value="0" recordCount="0.0"/>
															<ScoreDistribution value="1" recordCount="1.0"/>
														</Node>
													</Node>
													<Node score="1" recordCount="1.0">
														<True/>
														<ScoreDistribution value="0" recordCount="0.0"/>
														<ScoreDistribution value="1" recordCount="1.0"/>
													</Node>
												</Node>
												<Node score="1" recordCount="1.0">
													<True/>
													<ScoreDistribution value="0" recordCount="0.0"/>
													<ScoreDistribution value="1" recordCount="1.0"/>
												</Node>
											</Node>
											<Node score="0" recordCount="191.0">
												<True/>
												<ScoreDistribution value="0" recordCount="191.0"/>
												<ScoreDistribution value="1" recordCount="0.0"/>
											</Node>
										</Node>
										<Node score="0" recordCount="359.0">
											<True/>
											<ScoreDistribution value="0" recordCount="359.0"/>
											<ScoreDistribution value="1" recordCount="0.0"/>
										</Node>
									</Node>
									<Node>
										<SimplePredicate field="double(V14)" operator="lessOrEqual" value="-1.8601956367492676"/>
										<Node score="0" recordCount="138.0">
											<SimplePredicate field="double(V18)" operator="lessOrEqual" value="1.886380672454834"/>
											<ScoreDistribution value="0" recordCount="138.0"/>
											<ScoreDistribution value="1" recordCount="0.0"/>
										</Node>
										<Node score="1" recordCount="1.0">
											<SimplePredicate field="double(V18)" operator="lessOrEqual" value="2.1857333183288574"/>
											<ScoreDistribution value="0" recordCount="0.0"/>
											<ScoreDistribution value="1" recordCount="1.0"/>
										</Node>
										<Node score="0" recordCount="1.0">
											<True/>
											<ScoreDistribution value="0" recordCount="1.0"/>
											<ScoreDistribution value="1" recordCount="0.0"/>
										</Node>
									</Node>
									<Node score="0" recordCount="1896.0">
										<True/>
										<ScoreDistribution value="0" recordCount="1896.0"/>
										<ScoreDistribution value="1" recordCount="0.0"/>
									</Node>
								</Node>
								<Node score="1" recordCount="3.0">
									<SimplePredicate field="double(V13)" operator="lessOrEqual" value="-2.135035514831543"/>
									<ScoreDistribution value="0" recordCount="0.0"/>
									<ScoreDistribution value="1" recordCount="3.0"/>
								</Node>
								<Node score="0" recordCount="30.0">
									<True/>
									<ScoreDistribution value="0" recordCount="30.0"/>
									<ScoreDistribution value="1" recordCount="0.0"/>
								</Node>
							</Node>
							<Node>
								<SimplePredicate field="double(V23)" operator="lessOrEqual" value="1.3131005764007568"/>
								<Node>
									<SimplePredicate field="double(V10)" operator="lessOrEqual" value="-2.4952454566955566"/>
									<Node>
										<SimplePredicate field="double(V14)" operator="lessOrEqual" value="-3.0989131927490234"/>
										<Node>
											<SimplePredicate field="double(V23)" operator="lessOrEqual" value="-0.1841151863336563"/>
											<Node>
												<SimplePredicate field="double(V14)" operator="lessOrEqual" value="-3.26592755317688"/>
												<Node score="0" recordCount="12.0">
													<SimplePredicate field="double(V22)" operator="lessOrEqual" value="0.8737849593162537"/>
													<ScoreDistribution value="0" recordCount="12.0"/>
													<ScoreDistribution value="1" recordCount="0.0"/>
												</Node>
												<Node score="1" recordCount="1.0">
													<True/>
													<ScoreDistribution value="0" recordCount="0.0"/>
													<ScoreDistribution value="1" recordCount="1.0"/>
												</Node>
											</Node>
											<Node score="1" recordCount="1.0">
												<True/>
												<ScoreDistribution value="0" recordCount="0.0"/>
												<ScoreDistribution value="1" recordCount="1.0"/>
											</Node>
										</Node>
										<Node score="1" recordCount="5.0">
											<True/>
											<ScoreDistribution value="0" recordCount="0.0"/>
											<ScoreDistribution value="1" recordCount="5.0"/>
										</Node>
									</Node>
									<Node>
										<SimplePredicate field="double(V25)" operator="lessOrEqual" value="-0.8544120788574219"/>
										<Node score="0" recordCount="25.0">
											<SimplePredicate field="double(V19)" operator="lessOrEqual" value="0.8203443288803101"/>
											<ScoreDistribution value="0" recordCount="25.0"/>
											<ScoreDistribution value="1" recordCount="0.0"/>
										</Node>
										<Node score="1" recordCount="1.0">
											<True/>
											<ScoreDistribution value="0" recordCount="0.0"/>
											<ScoreDistribution value="1" recordCount="1.0"/>
										</Node>
									</Node>
									<Node score="0" recordCount="423.0">
										<True/>
										<ScoreDistribution value="0" recordCount="423.0"/>
										<ScoreDistribution value="1" recordCount="0.0"/>
									</Node>
								</Node>
								<Node>
									<SimplePredicate field="double(V12)" operator="lessOrEqual" value="-5.653087615966797"/>
									<Node score="1" recordCount="3.0">
										<SimplePredicate field="double(V9)" operator="lessOrEqual" value="-0.16454023122787476"/>
										<ScoreDistribution value="0" recordCount="0.0"/>
										<ScoreDistribution value="1" recordCount="3.0"/>
									</Node>
									<Node score="0" recordCount="1.0">
										<True/>
										<ScoreDistribution value="0" recordCount="1.0"/>
										<ScoreDistribution value="1" recordCount="0.0"/>
									</Node>
								</Node>
								<Node>
									<SimplePredicate field="double(V4)" operator="lessOrEqual" value="3.1282410621643066"/>
									<Node>
										<SimplePredicate field="double(V20)" operator="lessOrEqual" value="-0.5106000304222107"/>
										<Node>
											<SimplePredicate field="double(V20)" operator="lessOrEqual" value="-0.5106161832809448"/>
											<Node score="0" recordCount="6564.0">
												<SimplePredicate field="double(V24)" operator="lessOrEqual" value="0.6990970373153687"/>
												<ScoreDistribution value="0" recordCount="6564.0"/>
												<ScoreDistribution value="1" recordCount="0.0"/>
											</Node>
											<Node>
												<SimplePredicate field="double(V14)" operator="lessOrEqual" value="-0.4913727343082428"/>
												<Node score="0" recordCount="119.0">
													<SimplePredicate field="double(V4)" operator="lessOrEqual" value="0.8872452974319458"/>
													<ScoreDistribution value="0" recordCount="119.0"/>
													<ScoreDistribution value="1" recordCount="0.0"/>
												</Node>
												<Node score="1" recordCount="2.0">
													<SimplePredicate field="double(V24)" operator="lessOrEqual" value="0.7060561180114746"/>
													<ScoreDistribution value="0" recordCount="0.0"/>
													<ScoreDistribution value="1" recordCount="2.0"/>
												</Node>
												<Node score="0" recordCount="17.0">
													<True/>
													<ScoreDistribution value="0" recordCount="17.0"/>
													<ScoreDistribution value="1" recordCount="0.0"/>
												</Node>
											</Node>
											<Node score="0" recordCount="481.0">
												<True/>
												<ScoreDistribution value="0" recordCount="481.0"/>
												<ScoreDistribution value="1" recordCount="0.0"/>
											</Node>
										</Node>
										<Node score="1" recordCount="2.0">
											<True/>
											<ScoreDistribution value="0" recordCount="0.0"/>
											<ScoreDistribution value="1" recordCount="2.0"/>
										</Node>
									</Node>
									<Node>
										<SimplePredicate field="double(V11)" operator="lessOrEqual" value="2.2817468643188477"/>
										<Node>
											<SimplePredicate field="double(V22)" operator="lessOrEqual" value="0.7601601481437683"/>
											<Node>
												<SimplePredicate field="double(V19)" operator="lessOrEqual" value="-2.190840721130371"/>
												<Node score="0" recordCount="483.0">
													<SimplePredicate field="double(V28)" operator="lessOrEqual" value="0.1565863937139511"/>
													<ScoreDistribution value="0" recordCount="483.0"/>
													<ScoreDistribution value="1" recordCount="0.0"/>
												</Node>
												<Node score="0" recordCount="71.0">
													<SimplePredicate field="double(V4)" operator="lessOrEqual" value="1.5392396450042725"/>
													<ScoreDistribution value="0" recordCount="71.0"/>
													<ScoreDistribution value="1" recordCount="0.0"/>
												</Node>
												<Node score="1" recordCount="1.0">
													<SimplePredicate field="double(V28)" operator="lessOrEqual" value="0.16381622850894928"/>
													<ScoreDistribution value="0" recordCount="0.0"/>
													<ScoreDistribution value="1" recordCount="1.0"/>
												</Node>
												<Node score="0" recordCount="26.0">
													<True/>
													<ScoreDistribution value="0" recordCount="26.0"/>
													<ScoreDistribution value="1" recordCount="0.0"/>
												</Node>
											</Node>
											<Node>
												<SimplePredicate field="double(V10)" operator="lessOrEqual" value="-0.9893559217453003"/>
												<Node>
													<SimplePredicate field="double(V13)" operator="lessOrEqual" value="1.3664237260818481"/>
													<Node>
														<SimplePredicate field="double(V6)" operator="lessOrEqual" value="-1.3471415042877197"/>
														<Node score="0" recordCount="1064.0">
															<SimplePredicate field="double(Amount)" operator="lessOrEqual" value="30.06999969482422"/>
															<ScoreDistribution value="0" recordCount="1064.0"/>
															<ScoreDistribution value="1" recordCount="0.0"/>
														</Node>
														<Node score="1" recordCount="1.0">
															<SimplePredicate field="double(Amount)" operator="lessOrEqual" value="30.145000457763672"/>
															<ScoreDistribution value="0" recordCount="0.0"/>
															<ScoreDistribution value="1" recordCount="1.0"/>
														</Node>
														<Node score="0" recordCount="424.0">
															<True/>
															<ScoreDistribution value="0" recordCount="424.0"/>
															<ScoreDistribution value="1" recordCount="0.0"/>
														</Node>
													</Node>
													<Node score="0" recordCount="10550.0">
														<True/>
														<ScoreDistribution value="0" recordCount="10550.0"/>
														<ScoreDistribution value="1" recordCount="0.0"/>
													</Node>
												</Node>
												<Node>
													<SimplePredicate field="double(V14)" operator="lessOrEqual" value="-1.8201457262039185"/>
													<Node>
														<SimplePredicate field="double(V18)" operator="lessOrEqual" value="0.19980807602405548"/>
														<Node score="0" recordCount="1.0">
															<SimplePredicate field="double(V26)" operator="lessOrEqual" value="-0.1314774751663208"/>
															<ScoreDistribution value="0" recordCount="1.0"/>
															<ScoreDistribution value="1" recordCount="0.0"/>
														</Node>
														<Node score="1" recordCount="2.0">
															<True/>
															<ScoreDistribution value="0" recordCount="0.0"/>
															<ScoreDistribution value="1" recordCount="2.0"/>
														</Node>
													</Node>
													<Node score="0" recordCount="41.0">
														<True/>
														<ScoreDistribution value="0" recordCount="41.0"/>
														<ScoreDistribution value="1" recordCount="0.0"/>
													</Node>
												</Node>
												<Node score="0" recordCount="1408.0">
													<True/>
													<ScoreDistribution value="0" recordCount="1408.0"/>
													<ScoreDistribution value="1" recordCount="0.0"/>
												</Node>
											</Node>
											<Node score="0" recordCount="117299.0">
												<SimplePredicate field="double(V19)" operator="lessOrEqual" value="1.1899971961975098"/>
												<ScoreDistribution value="0" recordCount="117299.0"/>
												<ScoreDistribution value="1" recordCount="0.0"/>
											</Node>
											<Node score="0" recordCount="4478.0">
												<SimplePredicate field="double(V16)" operator="lessOrEqual" value="1.5310317277908325"/>
												<ScoreDistribution value="0" recordCount="4478.0"/>
												<ScoreDistribution value="1" recordCount="0.0"/>
											</Node>
											<Node score="0" recordCount="132.0">
												<SimplePredicate field="double(V26)" operator="lessOrEqual" value="-0.29209139943122864"/>
												<ScoreDistribution value="0" recordCount="132.0"/>
												<ScoreDistribution value="1" recordCount="0.0"/>
											</Node>
											<Node score="0" recordCount="50.0">
												<SimplePredicate field="double(V4)" operator="lessOrEqual" value="-0.598211407661438"/>
												<ScoreDistribution value="0" recordCount="50.0"/>
												<ScoreDistribution value="1" recordCount="0.0"/>
											</Node>
											<Node score="0" recordCount="2.0">
												<SimplePredicate field="double(V5)" operator="lessOrEqual" value="-0.9662848711013794"/>
												<ScoreDistribution value="0" recordCount="2.0"/>
												<ScoreDistribution value="1" recordCount="0.0"/>
											</Node>
											<Node score="1" recordCount="1.0">
												<True/>
												<ScoreDistribution value="0" recordCount="0.0"/>
												<ScoreDistribution value="1" recordCount="1.0"/>
											</Node>
										</Node>
										<Node>
											<SimplePredicate field="double(V20)" operator="lessOrEqual" value="0.8605778217315674"/>
											<Node>
												<SimplePredicate field="double(V17)" operator="lessOrEqual" value="1.1936962604522705"/>
												<Node>
													<SimplePredicate field="double(Amount)" operator="lessOrEqual" value="1.0049999952316284"/>
													<Node>
														<SimplePredicate field="double(V5)" operator="lessOrEqual" value="-0.6775527596473694"/>
														<Node score="0" recordCount="252.0">
															<SimplePredicate field="double(V19)" operator="lessOrEqual" value="0.573391854763031"/>
															<ScoreDistribution value="0" recordCount="252.0"/>
															<ScoreDistribution value="1" recordCount="0.0"/>
														</Node>
														<Node score="1" recordCount="1.0">
															<SimplePredicate field="double(V19)" operator="lessOrEqual" value="0.6003174781799316"/>
															<ScoreDistribution value="0" recordCount="0.0"/>
															<ScoreDistribution value="1" recordCount="1.0"/>
														</Node>
														<Node score="0" recordCount="56.0">
															<True/>
															<ScoreDistribution value="0" recordCount="56.0"/>
															<ScoreDistribution value="1" recordCount="0.0"/>
														</Node>
													</Node>
													<Node score="0" recordCount="2313.0">
														<True/>
														<ScoreDistribution value="0" recordCount="2313.0"/>
														<ScoreDistribution value="1" recordCount="0.0"/>
													</Node>
												</Node>
												<Node score="0" recordCount="18934.0">
													<True/>
													<ScoreDistribution value="0" recordCount="18934.0"/>
													<ScoreDistribution value="1" recordCount="0.0"/>
												</Node>
											</Node>
											<Node score="0" recordCount="748.0">
												<SimplePredicate field="double(V11)" operator="lessOrEqual" value="1.33582603931427"/>
												<ScoreDistribution value="0" recordCount="748.0"/>
												<ScoreDistribution value="1" recordCount="0.0"/>
											</Node>
											<Node score="1" recordCount="2.0">
												<SimplePredicate field="double(V17)" operator="lessOrEqual" value="1.1965949535369873"/>
												<ScoreDistribution value="0" recordCount="0.0"/>
												<ScoreDistribution value="1" recordCount="2.0"/>
											</Node>
											<Node score="0" recordCount="145.0">
												<True/>
												<ScoreDistribution value="0" recordCount="145.0"/>
												<ScoreDistribution value="1" recordCount="0.0"/>
											</Node>
										</Node>
										<Node>
											<SimplePredicate field="double(V24)" operator="lessOrEqual" value="-0.7714840173721313"/>
											<Node score="1" recordCount="2.0">
												<SimplePredicate field="double(V22)" operator="lessOrEqual" value="0.7619258761405945"/>
												<ScoreDistribution value="0" recordCount="0.0"/>
												<ScoreDistribution value="1" recordCount="2.0"/>
											</Node>
											<Node score="0" recordCount="113.0">
												<True/>
												<ScoreDistribution value="0" recordCount="113.0"/>
												<ScoreDistribution value="1" recordCount="0.0"/>
											</Node>
										</Node>
										<Node score="0" recordCount="931.0">
											<True/>
											<ScoreDistribution value="0" recordCount="931.0"/>
											<ScoreDistribution value="1" recordCount="0.0"/>
										</Node>
									</Node>
									<Node>
										<SimplePredicate field="double(V13)" operator="lessOrEqual" value="-0.30969271063804626"/>
										<Node score="0" recordCount="191.0">
											<SimplePredicate field="double(V1)" operator="lessOrEqual" value="1.1747136116027832"/>
											<ScoreDistribution value="0" recordCount="191.0"/>
											<ScoreDistribution value="1" recordCount="0.0"/>
										</Node>
										<Node score="0" recordCount="21.0">
											<SimplePredicate field="double(V13)" operator="lessOrEqual" value="-0.32899028062820435"/>
											<ScoreDistribution value="0" recordCount="21.0"/>
											<ScoreDistribution value="1" recordCount="0.0"/>
										</Node>
										<Node score="1" recordCount="1.0">
											<True/>
											<ScoreDistribution value="0" recordCount="0.0"/>
											<ScoreDistribution value="1" recordCount="1.0"/>
										</Node>
									</Node>
									<Node score="0" recordCount="1151.0">
										<True/>
										<ScoreDistribution value="0" recordCount="1151.0"/>
										<ScoreDistribution value="1" recordCount="0.0"/>
									</Node>
								</Node>
								<Node>
									<SimplePredicate field="double(V11)" operator="lessOrEqual" value="1.291851282119751"/>
									<Node>
										<SimplePredicate field="double(V10)" operator="lessOrEqual" value="-0.28248485922813416"/>
										<Node score="0" recordCount="98.0">
											<SimplePredicate field="double(V18)" operator="lessOrEqual" value="1.2278512716293335"/>
											<ScoreDistribution value="0" recordCount="98.0"/>
											<ScoreDistribution value="1" recordCount="0.0"/>
										</Node>
										<Node>
											<SimplePredicate field="double(V15)" operator="lessOrEqual" value="-1.6881598234176636"/>
											<Node score="0" recordCount="1.0">
												<SimplePredicate field="double(V6)" operator="lessOrEqual" value="-0.08817771822214127"/>
												<ScoreDistribution value="0" recordCount="1.0"/>
												<ScoreDistribution value="1" recordCount="0.0"/>
											</Node>
											<Node score="1" recordCount="1.0">
												<True/>
												<ScoreDistribution value="0" recordCount="0.0"/>
												<ScoreDistribution value="1" recordCount="1.0"/>
											</Node>
										</Node>
										<Node score="0" recordCount="13.0">
											<True/>
											<ScoreDistribution value="0" recordCount="13.0"/>
											<ScoreDistribution value="1" recordCount="0.0"/>
										</Node>
									</Node>
									<Node score="0" recordCount="4055.0">
										<SimplePredicate field="double(V9)" operator="lessOrEqual" value="0.5086761116981506"/>
										<ScoreDistribution value="0" recordCount="4055.0"/>
										<ScoreDistribution value="1" recordCount="0.0"/>
									</Node>
									<Node>
										<SimplePredicate field="double(Amount)" operator="lessOrEqual" value="1.2200000286102295"/>
										<Node>
											<SimplePredicate field="double(V17)" operator="lessOrEqual" value="-0.06793825328350067"/>
											<Node score="1" recordCount="1.0">
												<SimplePredicate field="double(V21)" operator="lessOrEqual" value="-0.13381029665470123"/>
												<ScoreDistribution value="0" recordCount="0.0"/>
												<ScoreDistribution value="1" recordCount="1.0"/>
											</Node>
											<Node score="0" recordCount="3.0">
												<True/>
												<ScoreDistribution value="0" recordCount="3.0"/>
												<ScoreDistribution value="1" recordCount="0.0"/>
											</Node>
										</Node>
										<Node score="0" recordCount="21.0">
											<True/>
											<ScoreDistribution value="0" recordCount="21.0"/>
											<ScoreDistribution value="1" recordCount="0.0"/>
										</Node>
									</Node>
									<Node score="0" recordCount="298.0">
										<True/>
										<ScoreDistribution value="0" recordCount="298.0"/>
										<ScoreDistribution value="1" recordCount="0.0"/>
									</Node>
								</Node>
								<Node score="1" recordCount="2.0">
									<SimplePredicate field="double(V11)" operator="lessOrEqual" value="1.2934865951538086"/>
									<ScoreDistribution value="0" recordCount="0.0"/>
									<ScoreDistribution value="1" recordCount="2.0"/>
								</Node>
								<Node>
									<SimplePredicate field="double(V6)" operator="lessOrEqual" value="-0.8477389812469482"/>
									<Node score="1" recordCount="2.0">
										<SimplePredicate field="double(V20)" operator="lessOrEqual" value="-0.00513768196105957"/>
										<ScoreDistribution value="0" recordCount="0.0"/>
										<ScoreDistribution value="1" recordCount="2.0"/>
									</Node>
									<Node score="0" recordCount="5.0">
										<True/>
										<ScoreDistribution value="0" recordCount="5.0"/>
										<ScoreDistribution value="1" recordCount="0.0"/>
									</Node>
								</Node>
								<Node score="0" recordCount="193.0">
									<True/>
									<ScoreDistribution value="0" recordCount="193.0"/>
									<ScoreDistribution value="1" recordCount="0.0"/>
								</Node>
							</Node>
							<Node score="1" recordCount="3.0">
								<SimplePredicate field="double(V23)" operator="lessOrEqual" value="1.3149902820587158"/>
								<ScoreDistribution value="0" recordCount="0.0"/>
								<ScoreDistribution value="1" recordCount="3.0"/>
							</Node>
							<Node>
								<SimplePredicate field="double(V12)" operator="lessOrEqual" value="-0.486083060503006"/>
								<Node score="1" recordCount="3.0">
									<SimplePredicate field="double(Time)" operator="lessOrEqual" value="2815.5"/>
									<ScoreDistribution value="0" recordCount="0.0"/>
									<ScoreDistribution value="1" recordCount="3.0"/>
								</Node>
								<Node>
									<SimplePredicate field="double(V14)" operator="lessOrEqual" value="-1.8291702270507812"/>
									<Node score="0" recordCount="5.0">
										<SimplePredicate field="double(V21)" operator="lessOrEqual" value="0.26904726028442383"/>
										<ScoreDistribution value="0" recordCount="5.0"/>
										<ScoreDistribution value="1" recordCount="0.0"/>
									</Node>
									<Node score="1" recordCount="2.0">
										<True/>
										<ScoreDistribution value="0" recordCount="0.0"/>
										<ScoreDistribution value="1" recordCount="2.0"/>
									</Node>
								</Node>
								<Node score="0" recordCount="384.0">
									<True/>
									<ScoreDistribution value="0" recordCount="384.0"/>
									<ScoreDistribution value="1" recordCount="0.0"/>
								</Node>
							</Node>
							<Node score="0" recordCount="1051.0">
								<True/>
								<ScoreDistribution value="0" recordCount="1051.0"/>
								<ScoreDistribution value="1" recordCount="0.0"/>
							</Node>
						</Node>
						<Node>
							<SimplePredicate field="double(V14)" operator="lessOrEqual" value="-2.7770256996154785"/>
							<Node score="1" recordCount="9.0">
								<SimplePredicate field="double(V12)" operator="lessOrEqual" value="-2.084506034851074"/>
								<ScoreDistribution value="0" recordCount="0.0"/>
								<ScoreDistribution value="1" recordCount="9.0"/>
							</Node>
							<Node score="0" recordCount="29.0">
								<True/>
								<ScoreDistribution value="0" recordCount="29.0"/>
								<ScoreDistribution value="1" recordCount="0.0"/>
							</Node>
						</Node>
						<Node>
							<SimplePredicate field="double(V9)" operator="lessOrEqual" value="-3.6434173583984375"/>
							<Node score="1" recordCount="1.0">
								<SimplePredicate field="double(V7)" operator="lessOrEqual" value="4.893287181854248"/>
								<ScoreDistribution value="0" recordCount="0.0"/>
								<ScoreDistribution value="1" recordCount="1.0"/>
							</Node>
							<Node score="0" recordCount="1.0">
								<True/>
								<ScoreDistribution value="0" recordCount="1.0"/>
								<ScoreDistribution value="1" recordCount="0.0"/>
							</Node>
						</Node>
						<Node>
							<SimplePredicate field="double(V10)" operator="lessOrEqual" value="1.7119331359863281"/>
							<Node score="0" recordCount="3491.0">
								<SimplePredicate field="double(Amount)" operator="lessOrEqual" value="451.1549987792969"/>
								<ScoreDistribution value="0" recordCount="3491.0"/>
								<ScoreDistribution value="1" recordCount="0.0"/>
							</Node>
							<Node score="0" recordCount="195.0">
								<SimplePredicate field="double(V17)" operator="lessOrEqual" value="1.666825294494629"/>
								<ScoreDistribution value="0" recordCount="195.0"/>
								<ScoreDistribution value="1" recordCount="0.0"/>
							</Node>
							<Node score="1" recordCount="1.0">
								<SimplePredicate field="double(V13)" operator="lessOrEqual" value="-0.8390201926231384"/>
								<ScoreDistribution value="0" recordCount="0.0"/>
								<ScoreDistribution value="1" recordCount="1.0"/>
							</Node>
							<Node score="0" recordCount="9.0">
								<True/>
								<ScoreDistribution value="0" recordCount="9.0"/>
								<ScoreDistribution value="1" recordCount="0.0"/>
							</Node>
						</Node>
						<Node score="0" recordCount="270.0">
							<SimplePredicate field="double(V26)" operator="lessOrEqual" value="2.349888324737549"/>
							<ScoreDistribution value="0" recordCount="270.0"/>
							<ScoreDistribution value="1" recordCount="0.0"/>
						</Node>
						<Node score="1" recordCount="2.0">
							<SimplePredicate field="double(V3)" operator="lessOrEqual" value="0.23867860436439514"/>
							<ScoreDistribution value="0" recordCount="0.0"/>
							<ScoreDistribution value="1" recordCount="2.0"/>
						</Node>
						<Node score="0" recordCount="2.0">
							<True/>
							<ScoreDistribution value="0" recordCount="2.0"/>
							<ScoreDistribution value="1" recordCount="0.0"/>
						</Node>
					</Node>
				</TreeModel>
			</Segment>
			<Segment id="3">
				<True/>
				<TreeModel functionName="classification" missingValueStrategy="nullPrediction" splitCharacteristic="multiSplit">
					<MiningSchema>
						<MiningField name="V10"/>
						<MiningField name="V12"/>
						<MiningField name="V14"/>
						<MiningField name="V5"/>
						<MiningField name="V26"/>
						<MiningField name="V28"/>
						<MiningField name="V13"/>
						<MiningField name="V22"/>
						<MiningField name="V27"/>
						<MiningField name="V9"/>
						<MiningField name="V18"/>
						<MiningField name="V17"/>
						<MiningField name="V11"/>
						<MiningField name="V6"/>
						<MiningField name="V15"/>
						<MiningField name="V2"/>
						<MiningField name="V25"/>
						<MiningField name="V21"/>
						<MiningField name="V20"/>
						<MiningField name="Time"/>
						<MiningField name="Amount"/>
						<MiningField name="V24"/>
						<MiningField name="V4"/>
						<MiningField name="V7"/>
						<MiningField name="V1"/>
						<MiningField name="V3"/>
						<MiningField name="V19"/>
						<MiningField name="V16"/>
						<MiningField name="V8"/>
					</MiningSchema>
					<Node>
						<True/>
						<Node>
							<SimplePredicate field="double(V11)" operator="lessOrEqual" value="3.614410877227783"/>
							<Node>
								<SimplePredicate field="double(V17)" operator="lessOrEqual" value="-3.16164493560791"/>
								<Node>
									<SimplePredicate field="double(V9)" operator="lessOrEqual" value="4.873242378234863"/>
									<Node>
										<SimplePredicate field="double(V28)" operator="lessOrEqual" value="0.019222721457481384"/>
										<Node score="1" recordCount="31.0">
											<SimplePredicate field="double(V27)" operator="lessOrEqual" value="0.9353121519088745"/>
											<ScoreDistribution value="0" recordCount="0.0"/>
											<ScoreDistribution value="1" recordCount="31.0"/>
										</Node>
										<Node score="1" recordCount="3.0">
											<SimplePredicate field="double(V15)" operator="lessOrEqual" value="0.520923376083374"/>
											<ScoreDistribution value="0" recordCount="0.0"/>
											<ScoreDistribution value="1" recordCount="3.0"/>
										</Node>
										<Node score="0" recordCount="2.0">
											<True/>
											<ScoreDistribution value="0" recordCount="2.0"/>
											<ScoreDistribution value="1" recordCount="0.0"/>
										</Node>
									</Node>
									<Node>
										<SimplePredicate field="double(V1)" operator="lessOrEqual" value="-5.306658744812012"/>
										<Node score="1" recordCount="3.0">
											<SimplePredicate field="double(V16)" operator="lessOrEqual" value="-5.536683082580566"/>
											<ScoreDistribution value="0" recordCount="0.0"/>
											<ScoreDistribution value="1" recordCount="3.0"/>
										</Node>
										<Node score="0" recordCount="6.0">
											<SimplePredicate field="double(V8)" operator="lessOrEqual" value="6.484053611755371"/>
											<ScoreDistribution value="0" recordCount="6.0"/>
											<ScoreDistribution value="1" recordCount="0.0"/>
										</Node>
										<Node score="1" recordCount="1.0">
											<SimplePredicate field="double(V28)" operator="lessOrEqual" value="0.29831165075302124"/>
											<ScoreDistribution value="0" recordCount="0.0"/>
											<ScoreDistribution value="1" recordCount="1.0"/>
										</Node>
										<Node score="0" recordCount="2.0">
											<True/>
											<ScoreDistribution value="0" recordCount="2.0"/>
											<ScoreDistribution value="1" recordCount="0.0"/>
										</Node>
									</Node>
									<Node>
										<SimplePredicate field="double(V27)" operator="lessOrEqual" value="0.18977366387844086"/>
										<Node score="0" recordCount="10.0">
											<SimplePredicate field="double(V28)" operator="lessOrEqual" value="0.6174264550209045"/>
											<ScoreDistribution value="0" recordCount="10.0"/>
											<ScoreDistribution value="1" recordCount="0.0"/>
										</Node>
										<Node score="1" recordCount="3.0">
											<True/>
											<ScoreDistribution value="0" recordCount="0.0"/>
											<ScoreDistribution value="1" recordCount="3.0"/>
										</Node>
									</Node>
									<Node score="1" recordCount="45.0">
										<SimplePredicate field="double(V10)" operator="lessOrEqual" value="-2.5265891551971436"/>
										<ScoreDistribution value="0" recordCount="0.0"/>
										<ScoreDistribution value="1" recordCount="45.0"/>
									</Node>
									<Node score="1" recordCount="1.0">
										<SimplePredicate field="double(V27)" operator="lessOrEqual" value="0.472808301448822"/>
										<ScoreDistribution value="0" recordCount="0.0"/>
										<ScoreDistribution value="1" recordCount="1.0"/>
									</Node>
									<Node score="0" recordCount="2.0">
										<True/>
										<ScoreDistribution value="0" recordCount="2.0"/>
										<ScoreDistribution value="1" recordCount="0.0"/>
									</Node>
								</Node>
								<Node score="0" recordCount="5.0">
									<True/>
									<ScoreDistribution value="0" recordCount="5.0"/>
									<ScoreDistribution value="1" recordCount="0.0"/>
								</Node>
							</Node>
							<Node score="1" recordCount="1.0">
								<SimplePredicate field="double(V12)" operator="lessOrEqual" value="-5.44349479675293"/>
								<ScoreDistribution value="0" recordCount="0.0"/>
								<ScoreDistribution value="1" recordCount="1.0"/>
							</Node>
							<Node>
								<SimplePredicate field="double(V14)" operator="lessOrEqual" value="-4.671975135803223"/>
								<Node>
									<SimplePredicate field="double(V10)" operator="lessOrEqual" value="-1.8837347030639648"/>
									<Node score="1" recordCount="19.0">
										<SimplePredicate field="double(V5)" operator="lessOrEqual" value="3.1721301078796387"/>
										<ScoreDistribution value="0" recordCount="0.0"/>
										<ScoreDistribution value="1" recordCount="19.0"/>
									</Node>
									<Node score="1" recordCount="3.0">
										<SimplePredicate field="double(V13)" operator="lessOrEqual" value="-0.29884013533592224"/>
										<ScoreDistribution value="0" recordCount="0.0"/>
										<ScoreDistribution value="1" recordCount="3.0"/>
									</Node>
									<Node score="0" recordCount="5.0">
										<True/>
										<ScoreDistribution value="0" recordCount="5.0"/>
										<ScoreDistribution value="1" recordCount="0.0"/>
									</Node>
								</Node>
								<Node>
									<SimplePredicate field="double(V9)" operator="lessOrEqual" value="-2.28251576423645"/>
									<Node score="1" recordCount="1.0">
										<SimplePredicate field="double(V20)" operator="lessOrEqual" value="0.06296584010124207"/>
										<ScoreDistribution value="0" recordCount="0.0"/>
										<ScoreDistribution value="1" recordCount="1.0"/>
									</Node>
									<Node score="0" recordCount="3.0">
										<True/>
										<ScoreDistribution value="0" recordCount="3.0"/>
										<ScoreDistribution value="1" recordCount="0.0"/>
									</Node>
								</Node>
								<Node score="0" recordCount="97.0">
									<True/>
									<ScoreDistribution value="0" recordCount="97.0"/>
									<ScoreDistribution value="1" recordCount="0.0"/>
								</Node>
							</Node>
							<Node>
								<SimplePredicate field="double(V4)" operator="lessOrEqual" value="2.7371864318847656"/>
								<Node>
									<SimplePredicate field="double(V22)" operator="lessOrEqual" value="-2.4517366886138916"/>
									<Node score="0" recordCount="331.0">
										<SimplePredicate field="double(V9)" operator="lessOrEqual" value="3.2663516998291016"/>
										<ScoreDistribution value="0" recordCount="331.0"/>
										<ScoreDistribution value="1" recordCount="0.0"/>
									</Node>
									<Node score="0" recordCount="13.0">
										<SimplePredicate field="double(V18)" operator="lessOrEqual" value="1.3884425163269043"/>
										<ScoreDistribution value="0" recordCount="13.0"/>
										<ScoreDistribution value="1" recordCount="0.0"/>
									</Node>
									<Node score="1" recordCount="2.0">
										<True/>
										<ScoreDistribution value="0" recordCount="0.0"/>
										<ScoreDistribution value="1" recordCount="2.0"/>
									</Node>
								</Node>
								<Node>
									<SimplePredicate field="double(Time)" operator="lessOrEqual" value="75556.5"/>
									<Node>
										<SimplePredicate field="double(V14)" operator="lessOrEqual" value="-4.459756851196289"/>
										<Node score="0" recordCount="19.0">
											<SimplePredicate field="double(V16)" operator="lessOrEqual" value="1.3549134731292725"/>
											<ScoreDistribution value="0" recordCount="19.0"/>
											<ScoreDistribution value="1" recordCount="0.0"/>
										</Node>
										<Node score="1" recordCount="2.0">
											<True/>
											<ScoreDistribution value="0" recordCount="0.0"/>
											<ScoreDistribution value="1" recordCount="2.0"/>
										</Node>
									</Node>
									<Node>
										<SimplePredicate field="double(Time)" operator="lessOrEqual" value="75555.5"/>
										<Node>
											<SimplePredicate field="double(V14)" operator="lessOrEqual" value="-0.43168967962265015"/>
											<Node>
												<SimplePredicate field="double(Amount)" operator="lessOrEqual" value="311.7550048828125"/>
												<Node>
													<SimplePredicate field="double(V8)" operator="lessOrEqual" value="0.0031685414724051952"/>
													<Node>
														<SimplePredicate field="double(V8)" operator="lessOrEqual" value="0.002953126560896635"/>
														<Node>
															<SimplePredicate field="double(V20)" operator="lessOrEqual" value="-0.0033599864691495895"/>
															<Node>
																<SimplePredicate field="double(V20)" operator="lessOrEqual" value="-0.00354568287730217"/>
																<Node>
																	<SimplePredicate field="double(V25)" operator="lessOrEqual" value="0.45484787225723267"/>
																	<Node>
																		<SimplePredicate field="double(V25)" operator="lessOrEqual" value="0.45445728302001953"/>
																		<Node>
																			<SimplePredicate field="double(V25)" operator="lessOrEqual" value="0.43743273615837097"/>
																			<Node>
																				<SimplePredicate field="double(V28)" operator="lessOrEqual" value="0.1577618420124054"/>
																				<Node score="0" recordCount="1370.0">
																					<SimplePredicate field="double(V17)" operator="lessOrEqual" value="0.5693701505661011"/>
																					<ScoreDistribution value="0" recordCount="1370.0"/>
																					<ScoreDistribution value="1" recordCount="0.0"/>
																				</Node>
																				<Node>
																					<SimplePredicate field="double(V13)" operator="lessOrEqual" value="-1.8637473583221436"/>
																					<Node score="0" recordCount="6.0">
																						<SimplePredicate field="double(V10)" operator="lessOrEqual" value="0.19233547151088715"/>
																						<ScoreDistribution value="0" recordCount="6.0"/>
																						<ScoreDistribution value="1" recordCount="0.0"/>
																					</Node>
																					<Node score="1" recordCount="1.0">
																						<True/>
																						<ScoreDistribution value="0" recordCount="0.0"/>
																						<ScoreDistribution value="1" recordCount="1.0"/>
																					</Node>
																				</Node>
																				<Node score="0" recordCount="281.0">
																					<True/>
																					<ScoreDistribution value="0" recordCount="281.0"/>
																					<ScoreDistribution value="1" recordCount="0.0"/>
																				</Node>
																			</Node>
																			<Node>
																				<SimplePredicate field="double(V19)" operator="lessOrEqual" value="-2.180062770843506"/>
																				<Node score="1" recordCount="1.0">
																					<SimplePredicate field="double(V10)" operator="lessOrEqual" value="1.190011978149414"/>
																					<ScoreDistribution value="0" recordCount="0.0"/>
																					<ScoreDistribution value="1" recordCount="1.0"/>
																				</Node>
																				<Node score="0" recordCount="2.0">
																					<True/>
																					<ScoreDistribution value="0" recordCount="2.0"/>
																					<ScoreDistribution value="1" recordCount="0.0"/>
																				</Node>
																			</Node>
																			<Node score="0" recordCount="162.0">
																				<True/>
																				<ScoreDistribution value="0" recordCount="162.0"/>
																				<ScoreDistribution value="1" recordCount="0.0"/>
																			</Node>
																		</Node>
																		<Node>
																			<SimplePredicate field="double(V20)" operator="lessOrEqual" value="-0.11182533204555511"/>
																			<Node score="0" recordCount="23.0">
																				<SimplePredicate field="double(V24)" operator="lessOrEqual" value="0.31935548782348633"/>
																				<ScoreDistribution value="0" recordCount="23.0"/>
																				<ScoreDistribution value="1" recordCount="0.0"/>
																			</Node>
																			<Node score="1" recordCount="1.0">
																				<True/>
																				<ScoreDistribution value="0" recordCount="0.0"/>
																				<ScoreDistribution value="1" recordCount="1.0"/>
																			</Node>
																		</Node>
																		<Node score="0" recordCount="3.0">
																			<SimplePredicate field="double(V8)" operator="lessOrEqual" value="-0.11537130922079086"/>
																			<ScoreDistribution value="0" recordCount="3.0"/>
																			<ScoreDistribution value="1" recordCount="0.0"/>
																		</Node>
																		<Node score="1" recordCount="1.0">
																			<True/>
																			<ScoreDistribution value="0" recordCount="0.0"/>
																			<ScoreDistribution value="1" recordCount="1.0"/>
																		</Node>
																	</Node>
																	<Node score="1" recordCount="2.0">
																		<True/>
																		<ScoreDistribution value="0" recordCount="0.0"/>
																		<ScoreDistribution value="1" recordCount="2.0"/>
																	</Node>
																</Node>
																<Node score="0" recordCount="1066.0">
																	<True/>
																	<ScoreDistribution value="0" recordCount="1066.0"/>
																	<ScoreDistribution value="1" recordCount="0.0"/>
																</Node>
															</Node>
															<Node score="1" recordCount="2.0">
																<True/>
																<ScoreDistribution value="0" recordCount="0.0"/>
																<ScoreDistribution value="1" recordCount="2.0"/>
															</Node>
														</Node>
														<Node>
															<SimplePredicate field="double(V15)" operator="lessOrEqual" value="-0.5405734777450562"/>
															<Node>
																<SimplePredicate field="double(V3)" operator="lessOrEqual" value="-0.24473699927330017"/>
																<Node score="0" recordCount="2.0">
																	<SimplePredicate field="double(V3)" operator="lessOrEqual" value="-0.38553646206855774"/>
																	<ScoreDistribution value="0" recordCount="2.0"/>
																	<ScoreDistribution value="1" recordCount="0.0"/>
																</Node>
																<Node score="1" recordCount="1.0">
																	<True/>
																	<ScoreDistribution value="0" recordCount="0.0"/>
																	<ScoreDistribution value="1" recordCount="1.0"/>
																</Node>
															</Node>
															<Node score="0" recordCount="375.0">
																<True/>
																<ScoreDistribution value="0" recordCount="375.0"/>
																<ScoreDistribution value="1" recordCount="0.0"/>
															</Node>
														</Node>
														<Node score="0" recordCount="3002.0">
															<True/>
															<ScoreDistribution value="0" recordCount="3002.0"/>
															<ScoreDistribution value="1" recordCount="0.0"/>
														</Node>
													</Node>
													<Node score="1" recordCount="1.0">
														<True/>
														<ScoreDistribution value="0" recordCount="0.0"/>
														<ScoreDistribution value="1" recordCount="1.0"/>
													</Node>
												</Node>
												<Node score="0" recordCount="7595.0">
													<True/>
													<ScoreDistribution value="0" recordCount="7595.0"/>
													<ScoreDistribution value="1" recordCount="0.0"/>
												</Node>
											</Node>
											<Node score="1" recordCount="2.0">
												<SimplePredicate field="double(Amount)" operator="lessOrEqual" value="311.95501708984375"/>
												<ScoreDistribution value="0" recordCount="0.0"/>
												<ScoreDistribution value="1" recordCount="2.0"/>
											</Node>
											<Node score="0" recordCount="793.0">
												<SimplePredicate field="double(V18)" operator="lessOrEqual" value="0.5156539678573608"/>
												<ScoreDistribution value="0" recordCount="793.0"/>
												<ScoreDistribution value="1" recordCount="0.0"/>
											</Node>
											<Node score="1" recordCount="2.0">
												<SimplePredicate field="double(V18)" operator="lessOrEqual" value="0.5207854509353638"/>
												<ScoreDistribution value="0" recordCount="0.0"/>
												<ScoreDistribution value="1" recordCount="2.0"/>
											</Node>
											<Node score="0" recordCount="146.0">
												<SimplePredicate field="double(V4)" operator="lessOrEqual" value="1.155390977859497"/>
												<ScoreDistribution value="0" recordCount="146.0"/>
												<ScoreDistribution value="1" recordCount="0.0"/>
